digraph Tree {
node [shape=box, style="filled", color="black", fontname="helvetica"] ;
edge [fontname="helvetica"] ;
0 [label="X <= -2.207\nsquared_error = 0.303\nsamples = 10\nvalue = 0.469", fillcolor="#f5cfb3"] ;
1 [label="X <= -4.233\nsquared_error = 0.002\nsamples = 3\nvalue = -0.048", fillcolor="#fefbf8"] ;
0 -> 1 [labeldistance=2.5, labelangle=45, headlabel="True"] ;
2 [label="X <= -4.335\nsquared_error = 0.001\nsamples = 2\nvalue = -0.024", fillcolor="#fef9f5"] ;
1 -> 2 ;
3 [label="squared_error = 0.0\nsamples = 1\nvalue = -0.048", fillcolor="#fefbf8"] ;
2 -> 3 ;
4 [label="squared_error = 0.0\nsamples = 1\nvalue = 0.0", fillcolor="#fdf7f2"] ;
2 -> 4 ;
5 [label="squared_error = 0.0\nsamples = 1\nvalue = -0.097", fillcolor="#ffffff"] ;
1 -> 5 ;
6 [label="X <= 2.545\nsquared_error = 0.269\nsamples = 7\nvalue = 0.69", fillcolor="#f1bc95"] ;
0 -> 6 [labeldistance=2.5, labelangle=-45, headlabel="False"] ;
7 [label="X <= 1.303\nsquared_error = 0.029\nsamples = 4\nvalue = 1.11", fillcolor="#ea985d"] ;
6 -> 7 ;
8 [label="X <= 0.649\nsquared_error = 0.007\nsamples = 3\nvalue = 1.021", fillcolor="#eb9f69"] ;
7 -> 8 ;
9 [label="X <= 0.166\nsquared_error = 0.0\nsamples = 2\nvalue = 1.078", fillcolor="#ea9b61"] ;
8 -> 9 ;
10 [label="squared_error = 0.0\nsamples = 1\nvalue = 1.071", fillcolor="#ea9b62"] ;
9 -> 10 ;
11 [label="squared_error = -0.0\nsamples = 1\nvalue = 1.085", fillcolor="#ea9a60"] ;
9 -> 11 ;
12 [label="squared_error = 0.0\nsamples = 1\nvalue = 0.907", fillcolor="#eda978"] ;
8 -> 12 ;
13 [label="squared_error = 0.0\nsamples = 1\nvalue = 1.377", fillcolor="#e58139"] ;
7 -> 13 ;
14 [label="X <= 4.036\nsquared_error = 0.04\nsamples = 3\nvalue = 0.131", fillcolor="#fbece0"] ;
6 -> 14 ;
15 [label="squared_error = 0.0\nsamples = 1\nvalue = 0.408", fillcolor="#f6d4bb"] ;
14 -> 15 ;
16 [label="X <= 4.82\nsquared_error = 0.003\nsamples = 2\nvalue = -0.008", fillcolor="#fdf7f3"] ;
14 -> 16 ;
17 [label="squared_error = 0.0\nsamples = 1\nvalue = -0.059", fillcolor="#fefcfa"] ;
16 -> 17 ;
18 [label="squared_error = 0.0\nsamples = 1\nvalue = 0.043", fillcolor="#fdf3ec"] ;
16 -> 18 ;
}